digraph Tree {
node [shape=box, style="rounded", color="black", fontname=helvetica] ;
edge [fontname=helvetica] ;
0 [label="Feature 2 <= -1.4\ngini = 0.4\nsamples = 14212\nvalue = [17333, 5167]"] ;
1 [label="Feature 2 <= -2.7\ngini = 0.5\nsamples = 2612\nvalue = [1948, 2218]"] ;
0 -> 1 [labeldistance=2.5, labelangle=45, headlabel="True"] ;
2 [label="Feature 1 <= 0.6\ngini = 0.5\nsamples = 1243\nvalue = [739, 1287]"] ;
1 -> 2 ;
3 [label="Feature 2 <= -2.9\ngini = 0.5\nsamples = 361\nvalue = [249, 342]"] ;
2 -> 3 ;
4 [label="Feature 1 <= 0.5\ngini = 0.5\nsamples = 240\nvalue = [179, 210]"] ;
3 -> 4 ;
5 [label="Feature 2 <= -3.2\ngini = 0.5\nsamples = 199\nvalue = [132, 188]"] ;
4 -> 5 ;
6 [label="gini = 0.4\nsamples = 117\nvalue = [61, 131]"] ;
5 -> 6 ;
7 [label="gini = 0.5\nsamples = 82\nvalue = [71, 57]"] ;
5 -> 7 ;
8 [label="Feature 1 <= 0.5\ngini = 0.4\nsamples = 41\nvalue = [47, 22]"] ;
4 -> 8 ;
9 [label="gini = 0.0\nsamples = 4\nvalue = [8, 0]"] ;
8 -> 9 ;
10 [label="gini = 0.5\nsamples = 37\nvalue = [39, 22]"] ;
8 -> 10 ;
11 [label="Featrue 3 <= 1.6\ngini = 0.5\nsamples = 121\nvalue = [70, 132]"] ;
3 -> 11 ;
12 [label="Featrue 3 <= 0.2\ngini = 0.5\nsamples = 114\nvalue = [70, 118]"] ;
11 -> 12 ;
13 [label="gini = 0.4\nsamples = 61\nvalue = [30, 79]"] ;
12 -> 13 ;
14 [label="gini = 0.5\nsamples = 53\nvalue = [40, 39]"] ;
12 -> 14 ;
15 [label="gini = 0.0\nsamples = 7\nvalue = [0, 14]"] ;
11 -> 15 ;
16 [label="Feature 1 <= 4.4\ngini = 0.4\nsamples = 882\nvalue = [490, 945]"] ;
2 -> 16 ;
17 [label="Featrue 3 <= 0.0\ngini = 0.4\nsamples = 842\nvalue = [451, 907]"] ;
16 -> 17 ;
18 [label="Feature 1 <= 0.7\ngini = 0.4\nsamples = 423\nvalue = [176, 487]"] ;
17 -> 18 ;
19 [label="gini = 0.2\nsamples = 24\nvalue = [6, 36]"] ;
18 -> 19 ;
20 [label="gini = 0.4\nsamples = 399\nvalue = [170, 451]"] ;
18 -> 20 ;
21 [label="Feature 2 <= -5.2\ngini = 0.5\nsamples = 419\nvalue = [275, 420]"] ;
17 -> 21 ;
22 [label="gini = 0.3\nsamples = 70\nvalue = [27, 93]"] ;
21 -> 22 ;
23 [label="gini = 0.5\nsamples = 349\nvalue = [248, 327]"] ;
21 -> 23 ;
24 [label="Feature 1 <= 7.3\ngini = 0.5\nsamples = 40\nvalue = [39, 38]"] ;
16 -> 24 ;
25 [label="Featrue 3 <= -2.0\ngini = 0.5\nsamples = 35\nvalue = [39, 23]"] ;
24 -> 25 ;
26 [label="gini = 0.0\nsamples = 3\nvalue = [8, 0]"] ;
25 -> 26 ;
27 [label="gini = 0.5\nsamples = 32\nvalue = [31, 23]"] ;
25 -> 27 ;
28 [label="gini = 0.0\nsamples = 5\nvalue = [0, 15]"] ;
24 -> 28 ;
29 [label="Featrue 3 <= 1.0\ngini = 0.5\nsamples = 1369\nvalue = [1209, 931]"] ;
1 -> 29 ;
30 [label="Feature 1 <= 0.6\ngini = 0.5\nsamples = 1001\nvalue = [841, 721]"] ;
29 -> 30 ;
31 [label="Feature 1 <= -0.4\ngini = 0.5\nsamples = 736\nvalue = [663, 482]"] ;
30 -> 31 ;
32 [label="Featrue 3 <= -2.5\ngini = 0.5\nsamples = 368\nvalue = [344, 224]"] ;
31 -> 32 ;
33 [label="gini = 0.2\nsamples = 17\nvalue = [24, 4]"] ;
32 -> 33 ;
34 [label="gini = 0.5\nsamples = 351\nvalue = [320, 220]"] ;
32 -> 34 ;
35 [label="Featrue 3 <= -2.7\ngini = 0.5\nsamples = 368\nvalue = [319, 258]"] ;
31 -> 35 ;
36 [label="gini = 0.0\nsamples = 7\nvalue = [10, 0]"] ;
35 -> 36 ;
37 [label="gini = 0.5\nsamples = 361\nvalue = [309, 258]"] ;
35 -> 37 ;
38 [label="Feature 2 <= -1.5\ngini = 0.5\nsamples = 265\nvalue = [178, 239]"] ;
30 -> 38 ;
39 [label="Featrue 3 <= -1.4\ngini = 0.5\nsamples = 253\nvalue = [175, 221]"] ;
38 -> 39 ;
40 [label="gini = 0.4\nsamples = 51\nvalue = [23, 58]"] ;
39 -> 40 ;
41 [label="gini = 0.5\nsamples = 202\nvalue = [152, 163]"] ;
39 -> 41 ;
42 [label="Feature 1 <= 1.8\ngini = 0.2\nsamples = 12\nvalue = [3, 18]"] ;
38 -> 42 ;
43 [label="gini = 0.4\nsamples = 4\nvalue = [2, 5]"] ;
42 -> 43 ;
44 [label="gini = 0.1\nsamples = 8\nvalue = [1, 13]"] ;
42 -> 44 ;
45 [label="Featrue 3 <= 1.9\ngini = 0.5\nsamples = 368\nvalue = [368, 210]"] ;
29 -> 45 ;
46 [label="Feature 2 <= -1.8\ngini = 0.5\nsamples = 360\nvalue = [365, 200]"] ;
45 -> 46 ;
47 [label="Feature 2 <= -1.9\ngini = 0.5\nsamples = 224\nvalue = [201, 144]"] ;
46 -> 47 ;
48 [label="gini = 0.5\nsamples = 171\nvalue = [161, 93]"] ;
47 -> 48 ;
49 [label="gini = 0.5\nsamples = 53\nvalue = [40, 51]"] ;
47 -> 49 ;
50 [label="Feature 2 <= -1.4\ngini = 0.4\nsamples = 136\nvalue = [164, 56]"] ;
46 -> 50 ;
51 [label="gini = 0.4\nsamples = 135\nvalue = [164, 55]"] ;
50 -> 51 ;
52 [label="gini = 0.0\nsamples = 1\nvalue = [0, 1]"] ;
50 -> 52 ;
53 [label="Feature 1 <= 0.0\ngini = 0.4\nsamples = 8\nvalue = [3, 10]"] ;
45 -> 53 ;
54 [label="Feature 1 <= -0.9\ngini = 0.2\nsamples = 6\nvalue = [1, 10]"] ;
53 -> 54 ;
55 [label="gini = 0.4\nsamples = 3\nvalue = [1, 3]"] ;
54 -> 55 ;
56 [label="gini = 0.0\nsamples = 3\nvalue = [0, 7]"] ;
54 -> 56 ;
57 [label="gini = 0.0\nsamples = 2\nvalue = [2, 0]"] ;
53 -> 57 ;
58 [label="Featrue 3 <= 1.5\ngini = 0.3\nsamples = 11600\nvalue = [15385, 2949]"] ;
0 -> 58 [labeldistance=2.5, labelangle=-45, headlabel="False"] ;
59 [label="Feature 2 <= -0.8\ngini = 0.3\nsamples = 10542\nvalue = [13881, 2765]"] ;
58 -> 59 ;
60 [label="Featrue 3 <= 0.8\ngini = 0.3\nsamples = 1740\nvalue = [2163, 609]"] ;
59 -> 60 ;
61 [label="Featrue 3 <= -2.6\ngini = 0.4\nsamples = 1188\nvalue = [1452, 458]"] ;
60 -> 61 ;
62 [label="Feature 1 <= -1.6\ngini = 0.1\nsamples = 32\nvalue = [51, 4]"] ;
61 -> 62 ;
63 [label="gini = 0.5\nsamples = 2\nvalue = [3, 3]"] ;
62 -> 63 ;
64 [label="gini = 0.0\nsamples = 30\nvalue = [48, 1]"] ;
62 -> 64 ;
65 [label="Featrue 3 <= -2.6\ngini = 0.4\nsamples = 1156\nvalue = [1401, 454]"] ;
61 -> 65 ;
66 [label="gini = 0.0\nsamples = 1\nvalue = [0, 2]"] ;
65 -> 66 ;
67 [label="gini = 0.4\nsamples = 1155\nvalue = [1401, 452]"] ;
65 -> 67 ;
68 [label="Featrue 3 <= 1.2\ngini = 0.3\nsamples = 552\nvalue = [711, 151]"] ;
60 -> 68 ;
69 [label="Feature 1 <= 3.2\ngini = 0.2\nsamples = 263\nvalue = [346, 54]"] ;
68 -> 69 ;
70 [label="gini = 0.2\nsamples = 260\nvalue = [346, 51]"] ;
69 -> 70 ;
71 [label="gini = 0.0\nsamples = 3\nvalue = [0, 3]"] ;
69 -> 71 ;
72 [label="Feature 2 <= -1.3\ngini = 0.3\nsamples = 289\nvalue = [365, 97]"] ;
68 -> 72 ;
73 [label="gini = 0.5\nsamples = 45\nvalue = [36, 26]"] ;
72 -> 73 ;
74 [label="gini = 0.3\nsamples = 244\nvalue = [329, 71]"] ;
72 -> 74 ;
75 [label="Feature 1 <= -1.7\ngini = 0.3\nsamples = 8802\nvalue = [11718, 2156]"] ;
59 -> 75 ;
76 [label="Feature 2 <= 2.3\ngini = 0.3\nsamples = 3358\nvalue = [4215, 1033]"] ;
75 -> 76 ;
77 [label="Featrue 3 <= -2.5\ngini = 0.3\nsamples = 2650\nvalue = [3248, 891]"] ;
76 -> 77 ;
78 [label="gini = 0.5\nsamples = 70\nvalue = [62, 48]"] ;
77 -> 78 ;
79 [label="gini = 0.3\nsamples = 2580\nvalue = [3186, 843]"] ;
77 -> 79 ;
80 [label="Feature 1 <= -2.7\ngini = 0.2\nsamples = 708\nvalue = [967, 142]"] ;
76 -> 80 ;
81 [label="gini = 0.2\nsamples = 597\nvalue = [807, 130]"] ;
80 -> 81 ;
82 [label="gini = 0.1\nsamples = 111\nvalue = [160, 12]"] ;
80 -> 82 ;
83 [label="Feature 1 <= 5.2\ngini = 0.2\nsamples = 5444\nvalue = [7503, 1123]"] ;
75 -> 83 ;
84 [label="Featrue 3 <= 1.5\ngini = 0.2\nsamples = 4936\nvalue = [6898, 899]"] ;
83 -> 84 ;
85 [label="gini = 0.2\nsamples = 4934\nvalue = [6898, 895]"] ;
84 -> 85 ;
86 [label="gini = 0.0\nsamples = 2\nvalue = [0, 4]"] ;
84 -> 86 ;
87 [label="Featrue 3 <= -0.8\ngini = 0.4\nsamples = 508\nvalue = [605, 224]"] ;
83 -> 87 ;
88 [label="gini = 0.5\nsamples = 178\nvalue = [196, 103]"] ;
87 -> 88 ;
89 [label="gini = 0.4\nsamples = 330\nvalue = [409, 121]"] ;
87 -> 89 ;
90 [label="Feature 2 <= -1.3\ngini = 0.2\nsamples = 1058\nvalue = [1504, 184]"] ;
58 -> 90 ;
91 [label="Feature 2 <= -1.4\ngini = 0.5\nsamples = 12\nvalue = [9, 7]"] ;
90 -> 91 ;
92 [label="gini = 0.0\nsamples = 3\nvalue = [4, 0]"] ;
91 -> 92 ;
93 [label="Feature 2 <= -1.4\ngini = 0.5\nsamples = 9\nvalue = [5, 7]"] ;
91 -> 93 ;
94 [label="gini = 0.0\nsamples = 2\nvalue = [0, 3]"] ;
93 -> 94 ;
95 [label="Feature 1 <= -1.4\ngini = 0.5\nsamples = 7\nvalue = [5, 4]"] ;
93 -> 95 ;
96 [label="gini = 0.0\nsamples = 2\nvalue = [0, 3]"] ;
95 -> 96 ;
97 [label="gini = 0.3\nsamples = 5\nvalue = [5, 1]"] ;
95 -> 97 ;
98 [label="Feature 2 <= -0.6\ngini = 0.2\nsamples = 1046\nvalue = [1495, 177]"] ;
90 -> 98 ;
99 [label="Featrue 3 <= 2.8\ngini = 0.3\nsamples = 240\nvalue = [336, 60]"] ;
98 -> 99 ;
100 [label="Featrue 3 <= 1.5\ngini = 0.2\nsamples = 239\nvalue = [336, 57]"] ;
99 -> 100 ;
101 [label="gini = 0.0\nsamples = 12\nvalue = [21, 0]"] ;
100 -> 101 ;
102 [label="gini = 0.3\nsamples = 227\nvalue = [315, 57]"] ;
100 -> 102 ;
103 [label="gini = 0.0\nsamples = 1\nvalue = [0, 3]"] ;
99 -> 103 ;
104 [label="Featrue 3 <= 3.0\ngini = 0.2\nsamples = 806\nvalue = [1159, 117]"] ;
98 -> 104 ;
105 [label="Featrue 3 <= 1.5\ngini = 0.2\nsamples = 799\nvalue = [1153, 112]"] ;
104 -> 105 ;
106 [label="gini = 0.0\nsamples = 68\nvalue = [110, 1]"] ;
105 -> 106 ;
107 [label="gini = 0.2\nsamples = 731\nvalue = [1043, 111]"] ;
105 -> 107 ;
108 [label="Feature 1 <= 3.8\ngini = 0.5\nsamples = 7\nvalue = [6, 5]"] ;
104 -> 108 ;
109 [label="gini = 0.0\nsamples = 2\nvalue = [0, 5]"] ;
108 -> 109 ;
110 [label="gini = 0.0\nsamples = 5\nvalue = [6, 0]"] ;
108 -> 110 ;
}