digraph Tree {
node [shape=box, style="rounded", color="black", fontname=helvetica] ;
edge [fontname=helvetica] ;
0 [label="PAY_6 <= 1.0\ngini = 0.3\nsamples = 14296\nvalue = [17488, 5012]"] ;
1 [label="PAY_5 <= 1.0\ngini = 0.3\nsamples = 12728\nvalue = [16300, 3745]"] ;
0 -> 1 [labeldistance=2.5, labelangle=45, headlabel="True"] ;
2 [label="PAY_AMT6 <= 1501.0\ngini = 0.3\nsamples = 12298\nvalue = [15899, 3448]"] ;
1 -> 2 ;
3 [label="PAY_2 <= 0.5\ngini = 0.3\nsamples = 6229\nvalue = [7687, 2113]"] ;
2 -> 3 ;
4 [label="PAY_AMT5 <= 752.5\ngini = 0.3\nsamples = 5565\nvalue = [7159, 1617]"] ;
3 -> 4 ;
5 [label="PAY_0 <= 1.5\ngini = 0.3\nsamples = 2952\nvalue = [3592, 974]"] ;
4 -> 5 ;
6 [label="gini = 0.3\nsamples = 2870\nvalue = [3555, 886]"] ;
5 -> 6 ;
7 [label="gini = 0.4\nsamples = 82\nvalue = [37, 88]"] ;
5 -> 7 ;
8 [label="PAY_0 <= 1.5\ngini = 0.3\nsamples = 2613\nvalue = [3567, 643]"] ;
4 -> 8 ;
9 [label="gini = 0.2\nsamples = 2504\nvalue = [3506, 531]"] ;
8 -> 9 ;
10 [label="gini = 0.5\nsamples = 109\nvalue = [61, 112]"] ;
8 -> 10 ;
11 [label="PAY_0 <= 1.5\ngini = 0.5\nsamples = 664\nvalue = [528, 496]"] ;
3 -> 11 ;
12 [label="BILL_AMT5 <= 114747.5\ngini = 0.5\nsamples = 439\nvalue = [406, 262]"] ;
11 -> 12 ;
13 [label="gini = 0.5\nsamples = 436\nvalue = [406, 253]"] ;
12 -> 13 ;
14 [label="gini = 0.0\nsamples = 3\nvalue = [0, 9]"] ;
12 -> 14 ;
15 [label="AGE <= 51.5\ngini = 0.5\nsamples = 225\nvalue = [122, 234]"] ;
11 -> 15 ;
16 [label="gini = 0.4\nsamples = 203\nvalue = [103, 222]"] ;
15 -> 16 ;
17 [label="gini = 0.5\nsamples = 22\nvalue = [19, 12]"] ;
15 -> 17 ;
18 [label="PAY_4 <= 1.5\ngini = 0.2\nsamples = 6069\nvalue = [8212, 1335]"] ;
2 -> 18 ;
19 [label="PAY_AMT1 <= 1498.5\ngini = 0.2\nsamples = 5841\nvalue = [7966, 1223]"] ;
18 -> 19 ;
20 [label="BILL_AMT3 <= 19604.5\ngini = 0.3\nsamples = 989\nvalue = [1249, 341]"] ;
19 -> 20 ;
21 [label="gini = 0.3\nsamples = 732\nvalue = [981, 198]"] ;
20 -> 21 ;
22 [label="gini = 0.5\nsamples = 257\nvalue = [268, 143]"] ;
20 -> 22 ;
23 [label="PAY_3 <= 1.5\ngini = 0.2\nsamples = 4852\nvalue = [6717, 882]"] ;
19 -> 23 ;
24 [label="gini = 0.2\nsamples = 4627\nvalue = [6499, 769]"] ;
23 -> 24 ;
25 [label="gini = 0.4\nsamples = 225\nvalue = [218, 113]"] ;
23 -> 25 ;
26 [label="BILL_AMT3 <= 3378.0\ngini = 0.4\nsamples = 228\nvalue = [246, 112]"] ;
18 -> 26 ;
27 [label="gini = 0.0\nsamples = 11\nvalue = [16, 0]"] ;
26 -> 27 ;
28 [label="PAY_AMT5 <= 4815.0\ngini = 0.4\nsamples = 217\nvalue = [230, 112]"] ;
26 -> 28 ;
29 [label="gini = 0.5\nsamples = 154\nvalue = [148, 91]"] ;
28 -> 29 ;
30 [label="gini = 0.3\nsamples = 63\nvalue = [82, 21]"] ;
28 -> 30 ;
31 [label="PAY_0 <= 1.5\ngini = 0.5\nsamples = 430\nvalue = [401, 297]"] ;
1 -> 31 ;
32 [label="PAY_2 <= 1.0\ngini = 0.4\nsamples = 319\nvalue = [356, 170]"] ;
31 -> 32 ;
33 [label="LIMIT_BAL <= 345000.0\ngini = 0.4\nsamples = 221\nvalue = [275, 89]"] ;
32 -> 33 ;
34 [label="BILL_AMT6 <= 173390.5\ngini = 0.4\nsamples = 208\nvalue = [255, 89]"] ;
33 -> 34 ;
35 [label="gini = 0.4\nsamples = 204\nvalue = [255, 84]"] ;
34 -> 35 ;
36 [label="gini = 0.0\nsamples = 4\nvalue = [0, 5]"] ;
34 -> 36 ;
37 [label="gini = 0.0\nsamples = 13\nvalue = [20, 0]"] ;
33 -> 37 ;
38 [label="BILL_AMT3 <= 40971.5\ngini = 0.5\nsamples = 98\nvalue = [81, 81]"] ;
32 -> 38 ;
39 [label="PAY_3 <= 1.0\ngini = 0.5\nsamples = 68\nvalue = [64, 44]"] ;
38 -> 39 ;
40 [label="gini = 0.4\nsamples = 24\nvalue = [30, 10]"] ;
39 -> 40 ;
41 [label="gini = 0.5\nsamples = 44\nvalue = [34, 34]"] ;
39 -> 41 ;
42 [label="PAY_AMT3 <= 10500.0\ngini = 0.4\nsamples = 30\nvalue = [17, 37]"] ;
38 -> 42 ;
43 [label="gini = 0.3\nsamples = 23\nvalue = [7, 31]"] ;
42 -> 43 ;
44 [label="gini = 0.5\nsamples = 7\nvalue = [10, 6]"] ;
42 -> 44 ;
45 [label="BILL_AMT3 <= 29045.5\ngini = 0.4\nsamples = 111\nvalue = [45, 127]"] ;
31 -> 45 ;
46 [label="PAY_4 <= -0.5\ngini = 0.5\nsamples = 42\nvalue = [24, 39]"] ;
45 -> 46 ;
47 [label="EDUCATION <= 2.5\ngini = 0.3\nsamples = 4\nvalue = [4, 1]"] ;
46 -> 47 ;
48 [label="gini = 0.0\nsamples = 2\nvalue = [3, 0]"] ;
47 -> 48 ;
49 [label="gini = 0.5\nsamples = 2\nvalue = [1, 1]"] ;
47 -> 49 ;
50 [label="MARRIAGE <= 1.5\ngini = 0.5\nsamples = 38\nvalue = [20, 38]"] ;
46 -> 50 ;
51 [label="gini = 0.2\nsamples = 18\nvalue = [4, 24]"] ;
50 -> 51 ;
52 [label="gini = 0.5\nsamples = 20\nvalue = [16, 14]"] ;
50 -> 52 ;
53 [label="LIMIT_BAL <= 270000.0\ngini = 0.3\nsamples = 69\nvalue = [21, 88]"] ;
45 -> 53 ;
54 [label="SEX <= 1.5\ngini = 0.3\nsamples = 64\nvalue = [17, 85]"] ;
53 -> 54 ;
55 [label="gini = 0.4\nsamples = 25\nvalue = [11, 29]"] ;
54 -> 55 ;
56 [label="gini = 0.2\nsamples = 39\nvalue = [6, 56]"] ;
54 -> 56 ;
57 [label="AGE <= 34.0\ngini = 0.5\nsamples = 5\nvalue = [4, 3]"] ;
53 -> 57 ;
58 [label="gini = 0.4\nsamples = 3\nvalue = [1, 3]"] ;
57 -> 58 ;
59 [label="gini = 0.0\nsamples = 2\nvalue = [3, 0]"] ;
57 -> 59 ;
60 [label="PAY_AMT1 <= 68.5\ngini = 0.5\nsamples = 1568\nvalue = [1188, 1267]"] ;
0 -> 60 [labeldistance=2.5, labelangle=-45, headlabel="False"] ;
61 [label="PAY_2 <= 1.0\ngini = 0.5\nsamples = 404\nvalue = [226, 374]"] ;
60 -> 61 ;
62 [label="PAY_AMT2 <= 2218.5\ngini = 0.4\nsamples = 29\nvalue = [32, 10]"] ;
61 -> 62 ;
63 [label="BILL_AMT6 <= 2578.5\ngini = 0.5\nsamples = 23\nvalue = [19, 10]"] ;
62 -> 63 ;
64 [label="EDUCATION <= 2.5\ngini = 0.3\nsamples = 15\nvalue = [16, 4]"] ;
63 -> 64 ;
65 [label="gini = 0.3\nsamples = 14\nvalue = [16, 3]"] ;
64 -> 65 ;
66 [label="gini = 0.0\nsamples = 1\nvalue = [0, 1]"] ;
64 -> 66 ;
67 [label="LIMIT_BAL <= 65000.0\ngini = 0.4\nsamples = 8\nvalue = [3, 6]"] ;
63 -> 67 ;
68 [label="gini = 0.4\nsamples = 4\nvalue = [3, 1]"] ;
67 -> 68 ;
69 [label="gini = 0.0\nsamples = 4\nvalue = [0, 5]"] ;
67 -> 69 ;
70 [label="gini = 0.0\nsamples = 6\nvalue = [13, 0]"] ;
62 -> 70 ;
71 [label="BILL_AMT2 <= 304.5\ngini = 0.5\nsamples = 375\nvalue = [194, 364]"] ;
61 -> 71 ;
72 [label="BILL_AMT6 <= 275.0\ngini = 0.2\nsamples = 10\nvalue = [13, 2]"] ;
71 -> 72 ;
73 [label="LIMIT_BAL <= 25000.0\ngini = 0.5\nsamples = 4\nvalue = [3, 2]"] ;
72 -> 73 ;
74 [label="gini = 0.0\nsamples = 2\nvalue = [0, 2]"] ;
73 -> 74 ;
75 [label="gini = 0.0\nsamples = 2\nvalue = [3, 0]"] ;
73 -> 75 ;
76 [label="gini = 0.0\nsamples = 6\nvalue = [10, 0]"] ;
72 -> 76 ;
77 [label="PAY_6 <= 4.5\ngini = 0.4\nsamples = 365\nvalue = [181, 362]"] ;
71 -> 77 ;
78 [label="PAY_0 <= 1.5\ngini = 0.5\nsamples = 336\nvalue = [179, 331]"] ;
77 -> 78 ;
79 [label="gini = 0.5\nsamples = 167\nvalue = [118, 131]"] ;
78 -> 79 ;
80 [label="gini = 0.4\nsamples = 169\nvalue = [61, 200]"] ;
78 -> 80 ;
81 [label="AGE <= 30.5\ngini = 0.1\nsamples = 29\nvalue = [2, 31]"] ;
77 -> 81 ;
82 [label="gini = 0.0\nsamples = 13\nvalue = [0, 16]"] ;
81 -> 82 ;
83 [label="gini = 0.2\nsamples = 16\nvalue = [2, 15]"] ;
81 -> 83 ;
84 [label="BILL_AMT2 <= 8657.0\ngini = 0.5\nsamples = 1164\nvalue = [962, 893]"] ;
60 -> 84 ;
85 [label="PAY_AMT2 <= 579.0\ngini = 0.4\nsamples = 141\nvalue = [159, 76]"] ;
84 -> 85 ;
86 [label="PAY_AMT6 <= 1400.0\ngini = 0.5\nsamples = 55\nvalue = [47, 45]"] ;
85 -> 86 ;
87 [label="PAY_AMT1 <= 358.0\ngini = 0.5\nsamples = 46\nvalue = [34, 45]"] ;
86 -> 87 ;
88 [label="gini = 0.0\nsamples = 5\nvalue = [8, 0]"] ;
87 -> 88 ;
89 [label="gini = 0.5\nsamples = 41\nvalue = [26, 45]"] ;
87 -> 89 ;
90 [label="gini = 0.0\nsamples = 9\nvalue = [13, 0]"] ;
86 -> 90 ;
91 [label="BILL_AMT2 <= 255.0\ngini = 0.3\nsamples = 86\nvalue = [112, 31]"] ;
85 -> 91 ;
92 [label="gini = 0.0\nsamples = 1\nvalue = [0, 3]"] ;
91 -> 92 ;
93 [label="BILL_AMT1 <= 6754.0\ngini = 0.3\nsamples = 85\nvalue = [112, 28]"] ;
91 -> 93 ;
94 [label="gini = 0.4\nsamples = 66\nvalue = [79, 28]"] ;
93 -> 94 ;
95 [label="gini = 0.0\nsamples = 19\nvalue = [33, 0]"] ;
93 -> 95 ;
96 [label="PAY_4 <= 1.0\ngini = 0.5\nsamples = 1023\nvalue = [803, 817]"] ;
84 -> 96 ;
97 [label="PAY_AMT2 <= 961.5\ngini = 0.4\nsamples = 437\nvalue = [456, 234]"] ;
96 -> 97 ;
98 [label="PAY_2 <= 1.0\ngini = 0.5\nsamples = 94\nvalue = [77, 78]"] ;
97 -> 98 ;
99 [label="gini = 0.4\nsamples = 45\nvalue = [54, 24]"] ;
98 -> 99 ;
100 [label="gini = 0.4\nsamples = 49\nvalue = [23, 54]"] ;
98 -> 100 ;
101 [label="PAY_3 <= -0.5\ngini = 0.4\nsamples = 343\nvalue = [379, 156]"] ;
97 -> 101 ;
102 [label="gini = 0.0\nsamples = 6\nvalue = [13, 0]"] ;
101 -> 102 ;
103 [label="gini = 0.4\nsamples = 337\nvalue = [366, 156]"] ;
101 -> 103 ;
104 [label="PAY_AMT6 <= 3393.5\ngini = 0.5\nsamples = 586\nvalue = [347, 583]"] ;
96 -> 104 ;
105 [label="BILL_AMT4 <= 5627.5\ngini = 0.5\nsamples = 461\nvalue = [250, 477]"] ;
104 -> 105 ;
106 [label="gini = 0.0\nsamples = 3\nvalue = [5, 0]"] ;
105 -> 106 ;
107 [label="gini = 0.4\nsamples = 458\nvalue = [245, 477]"] ;
105 -> 107 ;
108 [label="PAY_2 <= 2.5\ngini = 0.5\nsamples = 125\nvalue = [97, 106]"] ;
104 -> 108 ;
109 [label="gini = 0.5\nsamples = 115\nvalue = [93, 89]"] ;
108 -> 109 ;
110 [label="gini = 0.3\nsamples = 10\nvalue = [4, 17]"] ;
108 -> 110 ;
}